{
  "version": 1,
  "name": "NN_power055_init",
  "hidden": [
    8,
    8
  ],
  "kernels": [
    {
      "in": 1,
      "out": 8,
      "W": [
        [
          -0.007204516478896418
        ],
        [
          -0.008645180016575965
        ],
        [
          -0.005565793078383123
        ],
        [
          0.035099186254943154
        ],
        [
          -0.006379414189144355
        ],
        [
          -0.07486767071704788
        ],
        [
          0.016615917203385764
        ],
        [
          -0.013366873924858412
        ]
      ],
      "b": [
        0.0,
        0.0,
        0.0,
        0.0,
        0.0,
        0.0,
        0.0,
        0.0
      ]
    },
    {
      "in": 8,
      "out": 8,
      "W": [
        [
          -0.010847934207259751,
          0.005794239335042754,
          0.011614886845336044,
          0.05817793432995715,
          0.032831825339933444,
          0.005525358872191598,
          -0.03691608011724103,
          -0.050733118374385856
        ],
        [
          0.012317109760560099,
          0.06555404136020242,
          0.0020828431951691946,
          -0.0053161646885392135,
          0.026588811020043464,
          -0.0726772649004339,
          -0.015613865857227991,
          0.02451812662967624
        ],
        [
          0.04367021926897234,
          -0.012031483632756771,
          0.01882999293439551,
          0.012410672466420724,
          0.03911634043518211,
          -0.05566111071240864,
          0.02841253437926929,
          -0.07572601958625699
        ],
        [
          -0.1309972711109426,
          -0.030344536409975132,
          -0.04579050231729974,
          0.04380061215282032,
          0.03321329498064475,
          -0.06095373706478477,
          0.04236807116740002,
          -0.05011014121211749
        ],
        [
          -0.004312192316814209,
          -0.014694988897826609,
          0.005720992873046061,
          0.04093181557718835,
          0.031920689539622175,
          0.017494255093460434,
          0.03249740489031493,
          0.02392460188250592
        ],
        [
          -0.03134927326097999,
          -0.03586855469082888,
          -0.023498413706800697,
          0.024966320023839077,
          -0.01250577854986921,
          0.1167877111240274,
          -0.04096462710932468,
          -0.054943729995107916
        ],
        [
          0.03842367577348482,
          0.07109249906717328,
          0.025284634541963,
          0.04179086729838367,
          0.07131724887210812,
          -0.004701373800815195,
          -0.07114794665694886,
          -0.026603827415935633
        ],
        [
          0.047644787865828826,
          -0.0721839203039144,
          0.0016765660393630675,
          0.012661867967103094,
          -0.01577960824068353,
          0.03618159931840483,
          0.029038987076328317,
          0.11607042584503656
        ]
      ],
      "b": [
        0.0,
        0.0,
        0.0,
        0.0,
        0.0,
        0.0,
        0.0,
        0.0
      ]
    },
    {
      "in": 8,
      "out": 1,
      "W": [
        [
          0.030998388388656775,
          -0.03047017293215311,
          -0.028089879616701532,
          -0.04157905506210033,
          0.04761367799079103,
          -0.02834164174068505,
          -0.0035130386850298827,
          0.037465130964483756
        ]
      ],
      "b": [
        0.0
      ]
    }
  ],
  "out_bias": 1.629916776345621
}