{
  "version": 1,
  "kernel_type": "pair",
  "name": "NNPair_hf_like_init",
  "hidden": [
    16,
    16
  ],
  "kernels": [
    {
      "in": 2,
      "out": 16,
      "W": [
        [
          -0.012794014422380021,
          0.0255715756258257
        ],
        [
          -0.011304808239155237,
          -0.015753421116559273
        ],
        [
          -0.046500909516138375,
          -0.010665097371060184
        ],
        [
          0.05559586904931604,
          0.021207334206296807
        ],
        [
          0.05184395394448332,
          0.012445136383254568
        ],
        [
          0.019738481730687887,
          0.009266333021419939
        ],
        [
          -0.08330312626559716,
          0.04276254843823686
        ],
        [
          0.025319242294736023,
          0.0249409019080972
        ],
        [
          -0.08456822759242114,
          -0.08719440586378017
        ],
        [
          -0.04448076724034649,
          -0.02340946378666173
        ],
        [
          0.015272299591622036,
          -0.0022955865256292676
        ],
        [
          0.026048744921045103,
          -0.032111737493724694
        ],
        [
          0.015435157460544056,
          0.019707723842960503
        ],
        [
          -0.03305686737660712,
          0.08587651586668714
        ],
        [
          0.02783046779337278,
          0.0598502618989504
        ],
        [
          -0.03101664572414219,
          -0.03697579481123866
        ]
      ],
      "b": [
        0.0,
        0.0,
        0.0,
        0.0,
        0.0,
        0.0,
        0.0,
        0.0,
        0.0,
        0.0,
        0.0,
        0.0,
        0.0,
        0.0,
        0.0,
        0.0
      ]
    },
    {
      "in": 16,
      "out": 16,
      "W": [
        [
          -0.017202333958158404,
          -0.0053210665769272,
          0.03160393725160745,
          0.012421362678484607,
          -0.02236774476160827,
          -0.0478456156831186,
          -0.02602951550332694,
          0.061046065744995194,
          -0.040397321415391776,
          0.012237937365803761,
          0.021325948733708182,
          -0.07448715674305574,
          0.002423717890298102,
          0.06531217999035359,
          -0.10071819123551316,
          -0.016079692553283523
        ],
        [
          -0.005306958431284186,
          -0.04086301512185072,
          0.024869500559962707,
          -0.0031139947466477702,
          -0.07323283285770278,
          0.04139229392456572,
          0.033466784491050054,
          0.047292089620370695,
          0.07202987065963015,
          0.018112183517417085,
          0.00596370751750594,
          -0.0649584042365625,
          0.03077216063574877,
          -0.030587945980519077,
          -0.022635094980941864,
          -0.06323938871506617
        ],
        [
          -0.048380716360541975,
          -0.026556054630793458,
          0.06444187715379936,
          -0.10158960237243378,
          -0.07288527767894334,
          0.011967554818725227,
          0.0721674877078248,
          0.028924847518740745,
          -0.09499716384659761,
          -0.12591174150156192,
          0.017869860785551323,
          -0.03681309698682259,
          -0.055989328676353804,
          0.048868562070978144,
          0.055089310209020206,
          0.007862594021924315
        ],
        [
          0.012288825513962182,
          0.02171814049160661,
          0.07970020284656396,
          0.03095143016276926,
          0.025932476948788537,
          0.027386878681561557,
          -0.07841552612774796,
          0.06408667592020452,
          0.047755104174806405,
          0.02648118608998459,
          -0.0986937717768315,
          -0.03168400127931683,
          0.04211517969237405,
          -0.09056071262606628,
          -0.00920111146630203,
          0.05097638359261464
        ],
        [
          -0.06555943065057333,
          0.08050530991874372,
          0.027598198589743106,
          -0.007506937563989254,
          0.016243341050235918,
          0.03249154957225762,
          0.006019686310177269,
          0.05728301179289809,
          -0.0330772282876198,
          -0.020736807794667144,
          0.052084227653679684,
          0.0013399470773638408,
          -0.044023204055972036,
          0.047322763274660576,
          0.07327487871513734,
          -0.022241304257787357
        ],
        [
          -0.06899965935802475,
          -0.0067374100846556515,
          -0.007450940182011945,
          -0.014899982481679015,
          0.07023851517887826,
          -0.051346823695789724,
          0.06302933224191619,
          -0.06341609895368097,
          -0.03935197335913645,
          0.03157606394490869,
          0.056434515277470204,
          0.042950117512676994,
          0.017261237309601506,
          0.007117816897637791,
          0.007624089522842169,
          0.028764013541702077
        ],
        [
          -0.00880987288781455,
          0.013871799842364871,
          0.028636326681648856,
          4.1973823687003044e-05,
          0.038199119426896515,
          0.028293906457017216,
          0.10053160981825274,
          0.01624713183863607,
          -0.021379647597161686,
          -0.01862756079564353,
          -0.0006552798882842179,
          0.04618923022124257,
          -0.016828184424887822,
          0.019291299602858986,
          0.09186506388247331,
          -0.1282339737106967
        ],
        [
          -0.05619542926695162,
          0.012194850845165054,
          0.0199167697208732,
          0.01192866644305348,
          -0.021557574953237596,
          0.03275730966645717,
          0.014106503297663556,
          -0.026102566913670074,
          0.12150269375833762,
          0.01775664311924475,
          -0.027711448537343766,
          -0.004972427608844349,
          -0.011279764501251623,
          -0.0031370773303815284,
          -0.13640426704751005,
          -0.024344951493874722
        ],
        [
          0.05042847540252052,
          -0.058428113222998936,
          -0.0033350095424168422,
          0.0476752686890572,
          0.04280883829299039,
          0.07455259983173253,
          -0.08507066722239562,
          -0.017668800338194013,
          -0.01704749942996326,
          0.031164492297109665,
          0.054589375193503376,
          -0.13414147853911607,
          0.05443396451349031,
          -0.07237717111313269,
          0.0341574938051153,
          -0.07460692016854824
        ],
        [
          0.008792636669855811,
          0.059732730517125354,
          -0.007465980544297717,
          0.009555154557425748,
          0.03985618224222501,
          0.007068859757360612,
          -0.004424069092626675,
          0.07666280297303732,
          0.052423536293803134,
          -0.014690752974501087,
          0.1372662611356507,
          -0.057341952215882265,
          0.04573045578433288,
          -0.013285728865587779,
          0.006618285844536139,
          0.035250280908295115
        ],
        [
          0.011111106609694218,
          0.031932265383104085,
          -0.07636626813318222,
          -0.07547555410608199,
          0.030747129482570204,
          -0.04815792477330091,
          -0.05133241238578521,
          -0.07350696936358284,
          0.06331900255348759,
          0.037327900443955536,
          0.07365373611582939,
          -0.046886884632290515,
          5.0318058820058296e-05,
          -0.057015345118350484,
          0.03830186925896423,
          0.07947114466938657
        ],
        [
          -0.04451105008182332,
          0.0780165861438737,
          0.04940147468096037,
          -0.008891733349135044,
          -0.09859853429648985,
          0.07033158684678915,
          -0.004813024592328046,
          -0.030141412264576974,
          0.019979769024236038,
          0.02049821672341258,
          0.07490475194439335,
          -0.051007040536331205,
          0.056811866026723994,
          0.0743680190703769,
          0.0726118004950854,
          -0.009031228661711141
        ],
        [
          -0.03720142759594212,
          0.050928636230579666,
          0.005759265630514104,
          0.006209474293207782,
          0.0712107314564476,
          -0.013171823355243657,
          -0.11483626054045322,
          -0.019359560358315965,
          -0.09269615910545602,
          0.040939166545493226,
          0.01585173935819772,
          -0.03056035756645738,
          -0.0004799648871898107,
          0.04163120065350427,
          0.0039472545345556964,
          0.06632607560977237
        ],
        [
          -0.003064240775271667,
          0.05201673833908496,
          0.07457403809887744,
          0.08049464918722132,
          -0.03359096876965579,
          0.04399521042661023,
          -0.09379979534826412,
          -0.05416746974758055,
          -0.09813957566579973,
          0.053449281127167486,
          -0.06159673614347767,
          -0.0006382021412925372,
          -0.009610699026231406,
          -0.0014298763886789261,
          -0.029576088826757243,
          0.011683158765718125
        ],
        [
          0.08956335441101528,
          0.002213427678361966,
          0.026549107445970804,
          0.05002596838836046,
          -0.00989738454459144,
          -0.06298455659193164,
          -0.027769773576867864,
          0.05367973696836838,
          -0.08231127854246063,
          -0.029892291027525636,
          0.05037053263147358,
          0.0396368324928803,
          0.00038090641163412574,
          0.04026178979362253,
          0.008298971616491967,
          -0.058945772872863414
        ],
        [
          -0.0781971184607599,
          -0.03194760682692149,
          0.04613650551104562,
          -0.02827725758781975,
          -0.04511793002302075,
          -0.038548025588948764,
          -0.07658834762488403,
          -0.005863746014992257,
          -0.05898034761608942,
          0.018207298340433775,
          -0.11800482063077283,
          0.01638906047830471,
          -0.03208053783996589,
          -0.09710739633107383,
          0.0362354724201428,
          -0.0137754125720604
        ]
      ],
      "b": [
        0.0,
        0.0,
        0.0,
        0.0,
        0.0,
        0.0,
        0.0,
        0.0,
        0.0,
        0.0,
        0.0,
        0.0,
        0.0,
        0.0,
        0.0,
        0.0
      ]
    },
    {
      "in": 16,
      "out": 1,
      "W": [
        [
          -0.11150183915792887,
          -0.04375315985075146,
          0.014551212240955983,
          -0.02292911052546022,
          0.03899918437629155,
          0.03737784707062401,
          0.033311832082115266,
          0.01633126440477178,
          0.06668484748177891,
          0.03299170850789619,
          0.022560908719944477,
          -0.10419894512720831,
          0.04482778900439299,
          0.06547125777884842,
          -0.014844904134070542,
          -0.023475372034170924
        ]
      ],
      "b": [
        0.0
      ]
    }
  ],
  "out_bias": 0.4658300524425837
}