{
  "version": 1,
  "kernel_type": "pair",
  "name": "NNPair_hf_like_init",
  "hidden": [
    8,
    8
  ],
  "kernels": [
    {
      "in": 2,
      "out": 8,
      "W": [
        [
          -0.012794014422380021,
          0.0255715756258257
        ],
        [
          -0.011304808239155237,
          -0.015753421116559273
        ],
        [
          -0.046500909516138375,
          -0.010665097371060184
        ],
        [
          0.05559586904931604,
          0.021207334206296807
        ],
        [
          0.05184395394448332,
          0.012445136383254568
        ],
        [
          0.019738481730687887,
          0.009266333021419939
        ],
        [
          -0.08330312626559716,
          0.04276254843823686
        ],
        [
          0.025319242294736023,
          0.0249409019080972
        ]
      ],
      "b": [
        0.0,
        0.0,
        0.0,
        0.0,
        0.0,
        0.0,
        0.0,
        0.0
      ]
    },
    {
      "in": 8,
      "out": 8,
      "W": [
        [
          -0.08456822759242114,
          -0.08719440586378017,
          -0.04448076724034649,
          -0.02340946378666173,
          0.015272299591622036,
          -0.0022955865256292676,
          0.026048744921045103,
          -0.032111737493724694
        ],
        [
          0.015435157460544056,
          0.019707723842960503,
          -0.03305686737660712,
          0.08587651586668714,
          0.02783046779337278,
          0.0598502618989504,
          -0.03101664572414219,
          -0.03697579481123866
        ],
        [
          -0.017202333958158404,
          -0.0053210665769272,
          0.03160393725160745,
          0.012421362678484607,
          -0.02236774476160827,
          -0.0478456156831186,
          -0.02602951550332694,
          0.061046065744995194
        ],
        [
          -0.040397321415391776,
          0.012237937365803761,
          0.021325948733708182,
          -0.07448715674305574,
          0.002423717890298102,
          0.06531217999035359,
          -0.10071819123551316,
          -0.016079692553283523
        ],
        [
          -0.005306958431284186,
          -0.04086301512185072,
          0.024869500559962707,
          -0.0031139947466477702,
          -0.07323283285770278,
          0.04139229392456572,
          0.033466784491050054,
          0.047292089620370695
        ],
        [
          0.07202987065963015,
          0.018112183517417085,
          0.00596370751750594,
          -0.0649584042365625,
          0.03077216063574877,
          -0.030587945980519077,
          -0.022635094980941864,
          -0.06323938871506617
        ],
        [
          -0.048380716360541975,
          -0.026556054630793458,
          0.06444187715379936,
          -0.10158960237243378,
          -0.07288527767894334,
          0.011967554818725227,
          0.0721674877078248,
          0.028924847518740745
        ],
        [
          -0.09499716384659761,
          -0.12591174150156192,
          0.017869860785551323,
          -0.03681309698682259,
          -0.055989328676353804,
          0.048868562070978144,
          0.055089310209020206,
          0.007862594021924315
        ]
      ],
      "b": [
        0.0,
        0.0,
        0.0,
        0.0,
        0.0,
        0.0,
        0.0,
        0.0
      ]
    },
    {
      "in": 8,
      "out": 1,
      "W": [
        [
          0.012288825513962182,
          0.02171814049160661,
          0.07970020284656396,
          0.03095143016276926,
          0.025932476948788537,
          0.027386878681561557,
          -0.07841552612774796,
          0.06408667592020452
        ]
      ],
      "b": [
        0.0
      ]
    }
  ],
  "out_bias": -0.6295270729082059
}